<?xml version="1.0"?>
<opencv_storage>
<cascade>
  <stageType>BOOST</stageType>
  <featureType>LBP</featureType>
  <height>32</height>
  <width>32</width>
  <stageParams>
    <boostType>GAB</boostType>
    <minHitRate>9.9900001287460327e-01</minHitRate>
    <maxFalseAlarm>5.0000000000000000e-01</maxFalseAlarm>
    <weightTrimRate>9.4999999999999996e-01</weightTrimRate>
    <maxDepth>1</maxDepth>
    <maxWeakCount>100</maxWeakCount></stageParams>
  <featureParams>
    <maxCatCount>256</maxCatCount>
    <featSize>1</featSize></featureParams>
  <stageNum>20</stageNum>
  <stages>
    <!-- stage 0 -->
    <_>
      <maxWeakCount>3</maxWeakCount>
      <stageThreshold>-1.2159378528594971e+00</stageThreshold>
      <weakClassifiers>
        <_>
          <internalNodes>
            0 -1 24 -169628737 -83655907 86179985 -174129125 -1986291269
            -25067376 -1717329733 -283665</internalNodes>
          <leafValues>
            -9.6835970878601074e-01 8.4245073795318604e-01</leafValues></_>
        <_>
          <internalNodes>
            0 -1 25 -1075840065 855873681 1078161887 454246719
            1216534527 -91125560 -1347683393 -5121</internalNodes>
          <leafValues>
            -9.3720650672912598e-01 7.9548126459121704e-01</leafValues></_>
        <_>
          <internalNodes>
            0 -1 7 -799737392 -1178218085 1073764693 -640167405
            -650399281 -1099726319 -1054348385 -1089</internalNodes>
          <leafValues>
            -9.5873206853866577e-01 6.8962842226028442e-01</leafValues></_></weakClassifiers></_>
    <!-- stage 1 -->
    <_>
      <maxWeakCount>3</maxWeakCount>
      <stageThreshold>-1.2694026231765747e+00</stageThreshold>
      <weakClassifiers>
        <_>
          <internalNodes>
            0 -1 46 -8705 -543320097 -782673953 -10677809 1199636735
            -342955879 -223595553 -1317</internalNodes>
          <leafValues>
            -9.0367347002029419e-01 7.5981521606445313e-01</leafValues></_>
        <_>
          <internalNodes>
            0 -1 31 -572524562 -2362707 1129844750 -6696506 -804529153
            -41189205 -876283218 -537920785</internalNodes>
          <leafValues>
            -9.4533759355545044e-01 5.8037674427032471e-01</leafValues></_>
        <_>
          <internalNodes>
            0 -1 18 -545281537 -539118629 -2017132387 -1356879905
            -801590597 -38923605 -70048837 -1073763857</internalNodes>
          <leafValues>
            -9.1998010873794556e-01 5.7960844039916992e-01</leafValues></_></weakClassifiers></_>
    <!-- stage 2 -->
    <_>
      <maxWeakCount>3</maxWeakCount>
      <stageThreshold>-1.2432321310043335e+00</stageThreshold>
      <weakClassifiers>
        <_>
          <internalNodes>
            0 -1 39 -35651585 -539235601 -237639169 -2235393 -339316225
            -758963064 -343211041 -48641</internalNodes>
          <leafValues>
            -9.0256410837173462e-01 5.6967210769653320e-01</leafValues></_>
        <_>
          <internalNodes>
            0 -1 16 -68971073 537497747 -748562433 -1108229729
            -645088289 -272893783 -643126277 -35915381</internalNodes>
          <leafValues>
            -8.6104834079742432e-01 5.6634974479675293e-01</leafValues></_>
        <_>
          <internalNodes>
            0 -1 48 -2364621 -85733235 -804928897 -552894367 -284464247
            -92038013 -242614491 -40672</internalNodes>
          <leafValues>
            -9.0701782703399658e-01 5.9063661098480225e-01</leafValues></_></weakClassifiers></_>
    <!-- stage 3 -->
    <_>
      <maxWeakCount>3</maxWeakCount>
      <stageThreshold>-1.1274595260620117e+00</stageThreshold>
      <weakClassifiers>
        <_>
          <internalNodes>
            0 -1 13 -673333345 -107621935 -518937665 -69748225
            -742010913 -107244896 -93585505 -1029</internalNodes>
          <leafValues>
            -8.7145239114761353e-01 5.7826089859008789e-01</leafValues></_>
        <_>
          <internalNodes>
            0 -1 41 -530258945 1372311851 -1845391101 -678440821 4252856
            -307788597 -741094509 -4194321</internalNodes>
          <leafValues>
            -8.8752466440200806e-01 5.6071090698242188e-01</leafValues></_>
        <_>
          <internalNodes>
            0 -1 37 -295705601 -6589029 -788302531 -1206618669
            -148649281 -569927605 -1538609221 -352649553</internalNodes>
          <leafValues>
            -8.1671792268753052e-01 7.1924340724945068e-01</leafValues></_></weakClassifiers></_>
    <!-- stage 4 -->
    <_>
      <maxWeakCount>3</maxWeakCount>
      <stageThreshold>-1.1963704824447632e+00</stageThreshold>
      <weakClassifiers>
        <_>
          <internalNodes>
            0 -1 21 -1025 -7105161 -493137825 871830152 -1970537473
            -1415610229 -77602081 1273710367</internalNodes>
          <leafValues>
            -8.9326333999633789e-01 4.7184467315673828e-01</leafValues></_>
        <_>
          <internalNodes>
            0 -1 4 -2100481 -8940653 1356337914 -18886114 -1730176289
            -2129751 -2080145162 -134221057</internalNodes>
          <leafValues>
            -8.0214154720306396e-01 6.1685478687286377e-01</leafValues></_>
        <_>
          <internalNodes>
            0 -1 5 -136588289 -2895845 -450866721 1797711819 -258251266
            -7749463 2022608895 2147219195</internalNodes>
          <leafValues>
            -8.6607360839843750e-01 5.8973920345306396e-01</leafValues></_></weakClassifiers></_>
    <!-- stage 5 -->
    <_>
      <maxWeakCount>3</maxWeakCount>
      <stageThreshold>-1.0616829395294189e+00</stageThreshold>
      <weakClassifiers>
        <_>
          <internalNodes>
            0 -1 65 -20973569 -135016025 -1253599811 -1080829033
            -120848641 -2502515 -1903590977 -1346371585</internalNodes>
          <leafValues>
            -8.2511925697326660e-01 6.4999997615814209e-01</leafValues></_>
        <_>
          <internalNodes>
            0 -1 47 -748687361 -112463721 1023532755 -633429943
            1118505983 -40283229 -1278620161 -3145778</internalNodes>
          <leafValues>
            -7.6633489131927490e-01 6.8623632192611694e-01</leafValues></_>
        <_>
          <internalNodes>
            0 -1 20 -729686064 -115506039 1313292887 -70816961
            -111295825 -882163573 -207125565 -3089</internalNodes>
          <leafValues>
            -9.2280000448226929e-01 5.6443297863006592e-01</leafValues></_></weakClassifiers></_>
    <!-- stage 6 -->
    <_>
      <maxWeakCount>3</maxWeakCount>
      <stageThreshold>-1.3429782390594482e+00</stageThreshold>
      <weakClassifiers>
        <_>
          <internalNodes>
            0 -1 52 -136314889 -876100929 -1064615685 -949238525
            -395672679 -624246131 -489716963 -2097839</internalNodes>
          <leafValues>
            -8.6062717437744141e-01 4.1176471114158630e-01</leafValues></_>
        <_>
          <internalNodes>
            0 -1 50 -38471692 -42928032 -175973378 -181014200 -11681862
            -616255355 -369054977 -4196353</internalNodes>
          <leafValues>
            -8.6080402135848999e-01 5.4392498731613159e-01</leafValues></_>
        <_>
          <internalNodes>
            0 -1 32 -195310593 1210015639 -164507361 -996975905
            -81671173 -54860919 -72114273 -390071393</internalNodes>
          <leafValues>
            -8.9393895864486694e-01 5.2684158086776733e-01</leafValues></_></weakClassifiers></_>
    <!-- stage 7 -->
    <_>
      <maxWeakCount>3</maxWeakCount>
      <stageThreshold>-1.0494953393936157e+00</stageThreshold>
      <weakClassifiers>
        <_>
          <internalNodes>
            0 -1 53 -69732941 -510684879 -108538575 -237549583
            -110101509 -562471481 -22151469 -1281</internalNodes>
          <leafValues>
            -7.8243976831436157e-01 6.1725068092346191e-01</leafValues></_>
        <_>
          <internalNodes>
            0 -1 46 -50366465 -68954021 -587073027 -710941961 2056210175
            -14996837 -271843393 -2102289</internalNodes>
          <leafValues>
            -8.1039607524871826e-01 6.0503154993057251e-01</leafValues></_>
        <_>
          <internalNodes>
            0 -1 44 -537198788 -46903020 -1319022228 -15608385
            -1208615047 -1183481743 -108819462 -4196361</internalNodes>
          <leafValues>
            -8.2907497882843018e-01 5.4334044456481934e-01</leafValues></_></weakClassifiers></_>
    <!-- stage 8 -->
    <_>
      <maxWeakCount>3</maxWeakCount>
      <stageThreshold>-1.2906203269958496e+00</stageThreshold>
      <weakClassifiers>
        <_>
          <internalNodes>
            0 -1 15 -134219937 1002412351 -61779747 -2106403 1941017855
            -8664385 -251011441 -3845</internalNodes>
          <leafValues>
            -8.5540068149566650e-01 4.0000000596046448e-01</leafValues></_>
        <_>
          <internalNodes>
            0 -1 3 -1285561865 -499731201 -704463137 1889579042
            -2105475937 -427569250 -1098137649 -67638217</internalNodes>
          <leafValues>
            -8.2609796524047852e-01 5.2810055017471313e-01</leafValues></_>
        <_>
          <internalNodes>
            0 -1 51 -708323849 -137237985 -1826274825 -1453915757
            -1197999205 -829761585 -275775489 801050595</internalNodes>
          <leafValues>
            -8.6452233791351318e-01 5.5412960052490234e-01</leafValues></_></weakClassifiers></_>
    <!-- stage 9 -->
    <_>
      <maxWeakCount>4</maxWeakCount>
      <stageThreshold>-1.6752375364303589e+00</stageThreshold>
      <weakClassifiers>
        <_>
          <internalNodes>
            0 -1 36 -1025 -543735033 -1153246597 -134799358 2117012351
            -642318080 2009542475 -4244645</internalNodes>
          <leafValues>
            -8.1578946113586426e-01 4.8416289687156677e-01</leafValues></_>
        <_>
          <internalNodes>
            0 -1 26 -136318017 863475479 -573178371 -35914785 -359823907
            -171927159 -1333539621 -1053973</internalNodes>
          <leafValues>
            -7.4262630939483643e-01 6.5030115842819214e-01</leafValues></_>
        <_>
          <internalNodes>
            0 -1 8 -354418785 -161693233 -603625506 -18689168 -360453165
            -146806289 -7359376 -67109132</internalNodes>
          <leafValues>
            -7.6797741651535034e-01 6.2808889150619507e-01</leafValues></_>
        <_>
          <internalNodes>
            0 -1 58 -134218829 263190426 -1572609600 -543854 -423759109
            -1702055029 2072941201 -675287049</internalNodes>
          <leafValues>
            -7.3773896694183350e-01 6.5115565061569214e-01</leafValues></_></weakClassifiers></_>
    <!-- stage 10 -->
    <_>
      <maxWeakCount>5</maxWeakCount>
      <stageThreshold>-1.3824207782745361e+00</stageThreshold>
      <weakClassifiers>
        <_>
          <internalNodes>
            0 -1 9 -36306945 -246049291 -650010689 -671774479 -314449921
            -746474761 -464650561 -16449</internalNodes>
          <leafValues>
            -7.8662419319152832e-01 5.2238804101943970e-01</leafValues></_>
        <_>
          <internalNodes>
            0 -1 64 -69607937 -289472097 -560474742 -1635368710
            -124003417 -82853193 -242166796 -255918610</internalNodes>
          <leafValues>
            -8.7647926807403564e-01 4.4741138815879822e-01</leafValues></_>
        <_>
          <internalNodes>
            0 -1 29 -83886081 -581568185 307749919 -71889177 -749522177
            -70006773 -572548401 532617247</internalNodes>
          <leafValues>
            -8.3927035331726074e-01 5.2652108669281006e-01</leafValues></_>
        <_>
          <internalNodes>
            0 -1 28 -805569537 -150264594 -654120049 -3997266 1521942642
            1704411233 2075086815 -62449</internalNodes>
          <leafValues>
            -7.2202593088150024e-01 6.4108216762542725e-01</leafValues></_>
        <_>
          <internalNodes>
            0 -1 45 -162045961 -654079867 -1728030305 -583466919
            1912769459 -224356202 -1069503961 -879243677</internalNodes>
          <leafValues>
            -8.3282470703125000e-01 5.8942532539367676e-01</leafValues></_></weakClassifiers></_>
    <!-- stage 11 -->
    <_>
      <maxWeakCount>4</maxWeakCount>
      <stageThreshold>-1.9287338256835938e+00</stageThreshold>
      <weakClassifiers>
        <_>
          <internalNodes>
            0 -1 17 -96474385 -536873481 -760844085 -354426699
            1153157245 -589594477 -17039713 -18875681</internalNodes>
          <leafValues>
            -8.2758623361587524e-01 3.6546185612678528e-01</leafValues></_>
        <_>
          <internalNodes>
            0 -1 56 189787919 832042495 -641862689 -3019109 -475469317
            -74766709 -1447059782 -5244273</internalNodes>
          <leafValues>
            -8.3820581436157227e-01 4.4869875907897949e-01</leafValues></_>
        <_>
          <internalNodes>
            0 -1 30 -218170369 -552369781 806462343 -58984173 -23337289
            -1146366975 -1232104545 -1430328577</internalNodes>
          <leafValues>
            -8.1849086284637451e-01 5.0547176599502563e-01</leafValues></_>
        <_>
          <internalNodes>
            0 -1 33 -614466113 -172801449 -587078165 -70606558
            -343310337 1520001010 -606360929 1581193743</internalNodes>
          <leafValues>
            -7.6841360330581665e-01 5.6079119443893433e-01</leafValues></_></weakClassifiers></_>
    <!-- stage 12 -->
    <_>
      <maxWeakCount>3</maxWeakCount>
      <stageThreshold>-1.1043354272842407e+00</stageThreshold>
      <weakClassifiers>
        <_>
          <internalNodes>
            0 -1 2 -221263105 -24355 -186686851 -121374661 -175390597
            -80213557 -108600837 -9217</internalNodes>
          <leafValues>
            -7.9159933328628540e-01 4.8095238208770752e-01</leafValues></_>
        <_>
          <internalNodes>
            0 -1 59 -319493642 -129705638 -1550855973 -1820863603
            -644093201 -106788630 -71841541 -2110513</internalNodes>
          <leafValues>
            -8.5448914766311646e-01 4.4474384188652039e-01</leafValues></_>
        <_>
          <internalNodes>
            0 -1 35 -285215825 -429944633 -2079587820 42522615
            -504248145 -251328493 -757370303 -207619105</internalNodes>
          <leafValues>
            -7.3079860210418701e-01 5.7412719726562500e-01</leafValues></_></weakClassifiers></_>
    <!-- stage 13 -->
    <_>
      <maxWeakCount>5</maxWeakCount>
      <stageThreshold>-1.1391892433166504e+00</stageThreshold>
      <weakClassifiers>
        <_>
          <internalNodes>
            0 -1 19 -7209505 -44567627 520180635 -40138477 -1190538550
            -308569976 -1037831939 -1392514097</internalNodes>
          <leafValues>
            -7.9983592033386230e-01 4.4874715805053711e-01</leafValues></_>
        <_>
          <internalNodes>
            0 -1 61 -338690273 -1055829754 1087488969 -2629153
            -2063790309 -1260403361 1383435 -2097217</internalNodes>
          <leafValues>
            -7.1260625123977661e-01 6.5118050575256348e-01</leafValues></_>
        <_>
          <internalNodes>
            0 -1 55 -168862857 -203959097 -1044053985 -34735877
            -1242832209 -643094113 -912545543 -44748</internalNodes>
          <leafValues>
            -7.2427666187286377e-01 6.0420823097229004e-01</leafValues></_>
        <_>
          <internalNodes>
            0 -1 57 -219880450 -1975453442 1128436023 -152251458
            -1320226408 -1425505556 -629083192 -205520965</internalNodes>
          <leafValues>
            -8.1772506237030029e-01 5.5528736114501953e-01</leafValues></_>
        <_>
          <internalNodes>
            0 -1 1 -895496449 1729223589 1210020079 -128593893
            -355764409 1678614678 -775973089 -77595923</internalNodes>
          <leafValues>
            -6.7347395420074463e-01 6.6667157411575317e-01</leafValues></_></weakClassifiers></_>
    <!-- stage 14 -->
    <_>
      <maxWeakCount>3</maxWeakCount>
      <stageThreshold>-1.2013379335403442e+00</stageThreshold>
      <weakClassifiers>
        <_>
          <internalNodes>
            0 -1 66 2145251839 -1612768419 339865405 803035677
            -402066433 -75397446 -1104430689 -1428164610</internalNodes>
          <leafValues>
            -8.2066607475280762e-01 3.7577003240585327e-01</leafValues></_>
        <_>
          <internalNodes>
            0 -1 27 985627395 -544214689 -574007025 -40895865
            -1167070785 -57564968 -269635249 -1313093</internalNodes>
          <leafValues>
            -8.4038448333740234e-01 4.2922589182853699e-01</leafValues></_>
        <_>
          <internalNodes>
            0 -1 42 -402673885 -1935811173 -960067314 -1393089945
            -1270620605 -283393377 -344065481 -5247329</internalNodes>
          <leafValues>
            -7.3672348260879517e-01 5.6952029466629028e-01</leafValues></_></weakClassifiers></_>
    <!-- stage 15 -->
    <_>
      <maxWeakCount>3</maxWeakCount>
      <stageThreshold>-1.1598565578460693e+00</stageThreshold>
      <weakClassifiers>
        <_>
          <internalNodes>
            0 -1 0 -345772033 -288778857 -1023184417 -822109737
            -1120351041 -6297454 -335824417 -1312593</internalNodes>
          <leafValues>
            -7.9372936487197876e-01 4.1255605220794678e-01</leafValues></_>
        <_>
          <internalNodes>
            0 -1 38 -639690241 -8769033 293714167 -1210134177 -238437893
            -1147682341 -72540679 -1360262392</internalNodes>
          <leafValues>
            -7.6604855060577393e-01 4.6976181864738464e-01</leafValues></_>
        <_>
          <internalNodes>
            0 -1 49 -683689169 -203718241 -577965729 -537953825
            -826019209 -1330675110 -24962249 -1245</internalNodes>
          <leafValues>
            -8.0636411905288696e-01 4.9661707878112793e-01</leafValues></_></weakClassifiers></_>
    <!-- stage 16 -->
    <_>
      <maxWeakCount>3</maxWeakCount>
      <stageThreshold>-1.2111035585403442e+00</stageThreshold>
      <weakClassifiers>
        <_>
          <internalNodes>
            0 -1 14 -572529155 -682684185 -775584821 -576196211
            -613811201 -107838322 -1178868513 -2292460</internalNodes>
          <leafValues>
            -8.2731276750564575e-01 3.0783939361572266e-01</leafValues></_>
        <_>
          <internalNodes>
            0 -1 43 -685778465 932567387 -644393985 -1382085691
            -1717986883 -1916171644 -1431127877 -2066948724</internalNodes>
          <leafValues>
            -7.3066633939743042e-01 5.0948184728622437e-01</leafValues></_>
        <_>
          <internalNodes>
            0 -1 34 -1746995460 -103890222 1074324383 -617369398
            -276243216 -934661615 -204940548 -1312001</internalNodes>
          <leafValues>
            -7.8827667236328125e-01 5.1835376024246216e-01</leafValues></_></weakClassifiers></_>
    <!-- stage 17 -->
    <_>
      <maxWeakCount>4</maxWeakCount>
      <stageThreshold>-1.6859016418457031e+00</stageThreshold>
      <weakClassifiers>
        <_>
          <internalNodes>
            0 -1 23 -555754753 -568620853 -334445697 -661194401
            -1600681249 -1081004366 -1098135301 -17839121</internalNodes>
          <leafValues>
            -7.6359337568283081e-01 4.9100255966186523e-01</leafValues></_>
        <_>
          <internalNodes>
            0 -1 67 -716385569 -81869433 1094840831 -636402593
            -204875302 -142401534 -756491380 -1431786807</internalNodes>
          <leafValues>
            -7.6399362087249756e-01 4.9280858039855957e-01</leafValues></_>
        <_>
          <internalNodes>
            0 -1 11 2000158479 -72258125 -620132463 -40533989 1938582523
            -108465274 -1491031589 -37037430</internalNodes>
          <leafValues>
            -6.6373306512832642e-01 6.0676985979080200e-01</leafValues></_>
        <_>
          <internalNodes>
            0 -1 10 -784298593 -717140777 -571111233 -15367545 268835775
            1427148904 -49239634 2110372845</internalNodes>
          <leafValues>
            -8.2283633947372437e-01 5.0541841983795166e-01</leafValues></_></weakClassifiers></_>
    <!-- stage 18 -->
    <_>
      <maxWeakCount>3</maxWeakCount>
      <stageThreshold>-1.0207854509353638e+00</stageThreshold>
      <weakClassifiers>
        <_>
          <internalNodes>
            0 -1 54 -1037 -241186358 -1862017711 -236717437 -125576197
            -555120487 -1173829897 -2098257</internalNodes>
          <leafValues>
            -7.6156860589981079e-01 5.0391644239425659e-01</leafValues></_>
        <_>
          <internalNodes>
            0 -1 12 -675021057 1520089951 419546433 -858339854
            -662449543 -20004669 -1031282986 -18027536</internalNodes>
          <leafValues>
            -7.6613944768905640e-01 4.9241057038307190e-01</leafValues></_>
        <_>
          <internalNodes>
            0 -1 40 -360979569 -883699369 1091684663 -455608001
            -116896845 -1114378047 -938241617 -289421569</internalNodes>
          <leafValues>
            -7.5162738561630249e-01 5.3728348016738892e-01</leafValues></_></weakClassifiers></_>
    <!-- stage 19 -->
    <_>
      <maxWeakCount>5</maxWeakCount>
      <stageThreshold>-1.0506526231765747e+00</stageThreshold>
      <weakClassifiers>
        <_>
          <internalNodes>
            0 -1 60 -771892929 -11301825 1091126111 -610593397
            -352200078 -75331173 -754808021 -5248593</internalNodes>
          <leafValues>
            -7.5273865461349487e-01 4.8421052098274231e-01</leafValues></_>
        <_>
          <internalNodes>
            0 -1 22 -243335689 -567661 -938433707 391300674 -57101061
            -701620217 -661989237 -1096090689</internalNodes>
          <leafValues>
            -6.4919751882553101e-01 6.0077464580535889e-01</leafValues></_>
        <_>
          <internalNodes>
            0 -1 62 -371982862 724480454 419554642 -749612079
            -1056813923 -1291185949 1982058887 -138153033</internalNodes>
          <leafValues>
            -7.3272639513015747e-01 5.4000127315521240e-01</leafValues></_>
        <_>
          <internalNodes>
            0 -1 63 -484706337 -1029782759 -989474412 -891387106
            -775259770 -896859765 -1442056336 -118824516</internalNodes>
          <leafValues>
            -7.4648094177246094e-01 5.1975446939468384e-01</leafValues></_>
        <_>
          <internalNodes>
            0 -1 6 -587801195 -1878945141 -753033971 1081934084
            -1129643484 -1736343552 1787386371 -4734721</internalNodes>
          <leafValues>
            -6.7269366979598999e-01 6.1426085233688354e-01</leafValues></_></weakClassifiers></_></stages>
  <features>
    <_>
      <rect>
        1 1 3 1</rect></_>
    <_>
      <rect>
        1 9 2 2</rect></_>
    <_>
      <rect>
        1 20 5 3</rect></_>
    <_>
      <rect>
        2 2 4 3</rect></_>
    <_>
      <rect>
        2 17 4 1</rect></_>
    <_>
      <rect>
        3 6 4 2</rect></_>
    <_>
      <rect>
        4 1 6 9</rect></_>
    <_>
      <rect>
        4 6 7 6</rect></_>
    <_>
      <rect>
        4 15 2 2</rect></_>
    <_>
      <rect>
        5 1 6 5</rect></_>
    <_>
      <rect>
        5 5 7 3</rect></_>
    <_>
      <rect>
        5 10 3 2</rect></_>
    <_>
      <rect>
        5 16 1 1</rect></_>
    <_>
      <rect>
        6 6 6 3</rect></_>
    <_>
      <rect>
        6 7 1 1</rect></_>
    <_>
      <rect>
        6 8 4 2</rect></_>
    <_>
      <rect>
        6 9 4 1</rect></_>
    <_>
      <rect>
        6 23 3 2</rect></_>
    <_>
      <rect>
        7 2 7 5</rect></_>
    <_>
      <rect>
        7 7 3 1</rect></_>
    <_>
      <rect>
        7 9 2 5</rect></_>
    <_>
      <rect>
        7 19 3 2</rect></_>
    <_>
      <rect>
        7 23 2 3</rect></_>
    <_>
      <rect>
        7 26 2 1</rect></_>
    <_>
      <rect>
        8 4 6 4</rect></_>
    <_>
      <rect>
        8 8 3 2</rect></_>
    <_>
      <rect>
        8 9 3 2</rect></_>
    <_>
      <rect>
        8 10 2 2</rect></_>
    <_>
      <rect>
        9 15 2 2</rect></_>
    <_>
      <rect>
        9 18 2 3</rect></_>
    <_>
      <rect>
        10 2 2 3</rect></_>
    <_>
      <rect>
        10 5 4 2</rect></_>
    <_>
      <rect>
        10 6 2 1</rect></_>
    <_>
      <rect>
        10 15 2 2</rect></_>
    <_>
      <rect>
        10 16 1 2</rect></_>
    <_>
      <rect>
        11 7 3 8</rect></_>
    <_>
      <rect>
        11 15 1 2</rect></_>
    <_>
      <rect>
        12 4 1 2</rect></_>
    <_>
      <rect>
        12 20 2 1</rect></_>
    <_>
      <rect>
        13 5 4 3</rect></_>
    <_>
      <rect>
        13 6 1 1</rect></_>
    <_>
      <rect>
        14 3 4 8</rect></_>
    <_>
      <rect>
        14 10 1 2</rect></_>
    <_>
      <rect>
        14 16 4 1</rect></_>
    <_>
      <rect>
        14 17 3 2</rect></_>
    <_>
      <rect>
        15 6 3 1</rect></_>
    <_>
      <rect>
        15 8 3 2</rect></_>
    <_>
      <rect>
        15 9 3 2</rect></_>
    <_>
      <rect>
        16 4 1 2</rect></_>
    <_>
      <rect>
        16 6 1 1</rect></_>
    <_>
      <rect>
        16 17 2 2</rect></_>
    <_>
      <rect>
        16 18 2 3</rect></_>
    <_>
      <rect>
        17 2 1 3</rect></_>
    <_>
      <rect>
        17 20 4 3</rect></_>
    <_>
      <rect>
        17 21 4 3</rect></_>
    <_>
      <rect>
        18 3 1 2</rect></_>
    <_>
      <rect>
        18 10 3 2</rect></_>
    <_>
      <rect>
        18 16 1 2</rect></_>
    <_>
      <rect>
        18 23 3 2</rect></_>
    <_>
      <rect>
        19 10 2 4</rect></_>
    <_>
      <rect>
        20 0 3 1</rect></_>
    <_>
      <rect>
        20 0 4 6</rect></_>
    <_>
      <rect>
        20 22 3 2</rect></_>
    <_>
      <rect>
        21 15 2 2</rect></_>
    <_>
      <rect>
        21 17 3 1</rect></_>
    <_>
      <rect>
        22 6 2 2</rect></_>
    <_>
      <rect>
        22 8 2 1</rect></_>
    <_>
      <rect>
        23 7 1 1</rect></_></features></cascade>
</opencv_storage>
